<?xml version="1.0"?>
<opencv_storage>
<cascade>
  <stageType>BOOST</stageType>
  <featureType>LBP</featureType>
  <height>13</height>
  <width>36</width>
  <stageParams>
    <boostType>GAB</boostType>
    <minHitRate>9.9500000476837158e-01</minHitRate>
    <maxFalseAlarm>5.0000000000000000e-01</maxFalseAlarm>
    <weightTrimRate>9.4999999999999996e-01</weightTrimRate>
    <maxDepth>1</maxDepth>
    <maxWeakCount>100</maxWeakCount></stageParams>
  <featureParams>
    <maxCatCount>256</maxCatCount>
    <featSize>1</featSize></featureParams>
  <stageNum>12</stageNum>
  <stages>
    <!-- stage 0 -->
    <_>
      <maxWeakCount>3</maxWeakCount>
      <stageThreshold>-1.1182380914688110e+00</stageThreshold>
      <weakClassifiers>
        <_>
          <internalNodes>
            0 -1 20 -5121539 -3026475 -753797633 -2797099 -1148401153
            -4620135 -1683235329 -10938927</internalNodes>
          <leafValues>
            -8.7141925096511841e-01 8.2422971725463867e-01</leafValues></_>
        <_>
          <internalNodes>
            0 -1 41 1035677472 -1140862053 1569667581 -2098217 -71583041
            -5272577 -543450113 -29777</internalNodes>
          <leafValues>
            -9.0044283866882324e-01 6.3500583171844482e-01</leafValues></_>
        <_>
          <internalNodes>
            0 -1 22 -148550 -33554433 -246293537 -2105347 -1347699781
            -3165701 2071707646 -49154</internalNodes>
          <leafValues>
            -8.0060362815856934e-01 6.5362405776977539e-01</leafValues></_></weakClassifiers></_>
    <!-- stage 1 -->
    <_>
      <maxWeakCount>5</maxWeakCount>
      <stageThreshold>-1.2754549980163574e+00</stageThreshold>
      <weakClassifiers>
        <_>
          <internalNodes>
            0 -1 17 -208602627 -2263041 -3408899 -2100259 -1145307137
            -2123585 -68027393 -1</internalNodes>
          <leafValues>
            -8.0720609426498413e-01 7.8892213106155396e-01</leafValues></_>
        <_>
          <internalNodes>
            0 -1 16 -1715094531 -436227 -1084490753 -2630179 -1354895361
            -2254599 -1352668161 266145053</internalNodes>
          <leafValues>
            -8.2734298706054688e-01 5.1725918054580688e-01</leafValues></_>
        <_>
          <internalNodes>
            0 -1 43 -6440258 -2115585 939243519 -1073769505 -17826305
            -71580189 -67125249 -17410</internalNodes>
          <leafValues>
            -7.1358674764633179e-01 5.5877000093460083e-01</leafValues></_>
        <_>
          <internalNodes>
            0 -1 31 488259576 -1077159436 -3024387 -2788080 767204314
            -1078350968 -1155753736 504957428</internalNodes>
          <leafValues>
            -7.9874128103256226e-01 4.5004865527153015e-01</leafValues></_>
        <_>
          <internalNodes>
            0 -1 62 -941101257 836624863 -250216451 -537144353
            1472331711 931728587 -87068993 2139094655</internalNodes>
          <leafValues>
            -5.8719027042388916e-01 6.2263220548629761e-01</leafValues></_></weakClassifiers></_>
    <!-- stage 2 -->
    <_>
      <maxWeakCount>5</maxWeakCount>
      <stageThreshold>-1.3194259405136108e+00</stageThreshold>
      <weakClassifiers>
        <_>
          <internalNodes>
            0 -1 33 -4194374 -68165665 -609069092 -1053778 -68686913
            -73678325 -273410 -69</internalNodes>
          <leafValues>
            -8.3960831165313721e-01 6.4120894670486450e-01</leafValues></_>
        <_>
          <internalNodes>
            0 -1 29 -76432463 -682667 -35782657 -656555 -1616905729
            -5244481 -537928449 -12643971</internalNodes>
          <leafValues>
            -6.9606178998947144e-01 5.9107190370559692e-01</leafValues></_>
        <_>
          <internalNodes>
            0 -1 19 2048456180 2002016732 -103497729 -6479875
            -1076168197 -34058827 999479483 522060500</internalNodes>
          <leafValues>
            -6.5522366762161255e-01 5.1224631071090698e-01</leafValues></_>
        <_>
          <internalNodes>
            0 -1 3 -1372657921 247911388 -78381089 805042143 2133818367
            2038028687 -335545345 2113404919</internalNodes>
          <leafValues>
            -8.1349223852157593e-01 3.9566394686698914e-01</leafValues></_>
        <_>
          <internalNodes>
            0 -1 63 -4303 357465047 1966079409 1610598171 -1751142091
            2111752331 -85198539 -1610874889</internalNodes>
          <leafValues>
            -5.9530192613601685e-01 5.1749014854431152e-01</leafValues></_></weakClassifiers></_>
    <!-- stage 3 -->
    <_>
      <maxWeakCount>5</maxWeakCount>
      <stageThreshold>-1.3467656373977661e+00</stageThreshold>
      <weakClassifiers>
        <_>
          <internalNodes>
            0 -1 58 -67109003 -33555493 -70133761 -3137 -102761475
            -1073752065 -268568067 -2097153</internalNodes>
          <leafValues>
            -7.8287899494171143e-01 7.0077008008956909e-01</leafValues></_>
        <_>
          <internalNodes>
            0 -1 25 -16402 -167773709 -451544065 -136322065 -202380629
            -102761729 -134483986 -20561</internalNodes>
          <leafValues>
            -6.5916627645492554e-01 6.1832010746002197e-01</leafValues></_>
        <_>
          <internalNodes>
            0 -1 54 -8440011 2147473407 -736543401 -2114601 -118489601
            -605301541 1783578623 771167005</internalNodes>
          <leafValues>
            -8.2481807470321655e-01 3.7539571523666382e-01</leafValues></_>
        <_>
          <internalNodes>
            0 -1 7 -420024338 -187289761 -984090625 -81154 2002223071
            -34415457 1602969599 -536906753</internalNodes>
          <leafValues>
            -5.9519934654235840e-01 5.0356477499008179e-01</leafValues></_>
        <_>
          <internalNodes>
            0 -1 11 1569811376 -1655320244 -1656335403 -539142180
            521874354 -4384336 2066479869 2133349392</internalNodes>
          <leafValues>
            -7.4547040462493896e-01 4.1653287410736084e-01</leafValues></_></weakClassifiers></_>
    <!-- stage 4 -->
    <_>
      <maxWeakCount>6</maxWeakCount>
      <stageThreshold>-1.9525461196899414e+00</stageThreshold>
      <weakClassifiers>
        <_>
          <internalNodes>
            0 -1 28 -20549 -16385 -2768900 -2622465 -101732609 -1072929
            -274743297 -33825</internalNodes>
          <leafValues>
            -8.1978023052215576e-01 5.9935170412063599e-01</leafValues></_>
        <_>
          <internalNodes>
            0 -1 38 -1731151363 -640387073 -1572865 -36317217
            -1159136513 1066765279 -1141915649 -421891</internalNodes>
          <leafValues>
            -6.9935089349746704e-01 5.2647167444229126e-01</leafValues></_>
        <_>
          <internalNodes>
            0 -1 1 -5427293 -6291971 865189887 -2097185 -1430278153
            -268709441 1068216319 1066739183</internalNodes>
          <leafValues>
            -6.5791451930999756e-01 4.5766904950141907e-01</leafValues></_>
        <_>
          <internalNodes>
            0 -1 34 -788560254 -524326441 -1661565105 -889192449
            -79987956 1595619647 -1345585185 -335565317</internalNodes>
          <leafValues>
            -6.3255184888839722e-01 4.5070773363113403e-01</leafValues></_>
        <_>
          <internalNodes>
            0 -1 8 -280035480 -2451490 -1050838020 1878807002 2080709620
            -4511538 1000489419 1073689086</internalNodes>
          <leafValues>
            -6.4734405279159546e-01 4.1975581645965576e-01</leafValues></_>
        <_>
          <internalNodes>
            0 -1 44 -24470518 -134226979 1762446816 -13164713 994750191
            -2584389 903675870 -1079228276</internalNodes>
          <leafValues>
            -6.4596396684646606e-01 3.9290034770965576e-01</leafValues></_></weakClassifiers></_>
    <!-- stage 5 -->
    <_>
      <maxWeakCount>6</maxWeakCount>
      <stageThreshold>-1.6641288995742798e+00</stageThreshold>
      <weakClassifiers>
        <_>
          <internalNodes>
            0 -1 66 -85 -485229189 -135791157 -136347249 1943004603
            563843007 -273679889 -1041</internalNodes>
          <leafValues>
            -7.7028518915176392e-01 7.1202415227890015e-01</leafValues></_>
        <_>
          <internalNodes>
            0 -1 45 -249566454 -6292337 -876610993 -4194305 -134232758
            1935613773 -4693 -142610497</internalNodes>
          <leafValues>
            -5.5978977680206299e-01 6.6712260246276855e-01</leafValues></_>
        <_>
          <internalNodes>
            0 -1 5 -51216385 1553775069 -141822497 447386558 844398536
            2076039587 -388105473 -2229281</internalNodes>
          <leafValues>
            -6.1789250373840332e-01 4.9007162451744080e-01</leafValues></_>
        <_>
          <internalNodes>
            0 -1 37 823145403 972421119 -579355649 1039531991
            -1159857153 -1074163713 -1147142146 -1994383875</internalNodes>
          <leafValues>
            -6.5843617916107178e-01 4.2281901836395264e-01</leafValues></_>
        <_>
          <internalNodes>
            0 -1 48 -605639506 -671231777 1904487183 2146774319
            -86532241 -607137150 -82580545 -1026</internalNodes>
          <leafValues>
            -4.9864724278450012e-01 5.2613270282745361e-01</leafValues></_>
        <_>
          <internalNodes>
            0 -1 10 19971920 -69355010 -1747740705 -1084286497
            -334369795 -5379649 -152596 -1389034108</internalNodes>
          <leafValues>
            -6.9044947624206543e-01 3.5966670513153076e-01</leafValues></_></weakClassifiers></_>
    <!-- stage 6 -->
    <_>
      <maxWeakCount>5</maxWeakCount>
      <stageThreshold>-1.3077130317687988e+00</stageThreshold>
      <weakClassifiers>
        <_>
          <internalNodes>
            0 -1 35 -153 -69214753 -110889473 -67116073 2138307583
            -60098085 -17564753 -81</internalNodes>
          <leafValues>
            -7.4652671813964844e-01 7.2799366712570190e-01</leafValues></_>
        <_>
          <internalNodes>
            0 -1 65 -354422977 -1184899713 -1014002753 1576525151
            1944584055 -19924289 -1057025 -1075839062</internalNodes>
          <leafValues>
            -6.1319172382354736e-01 6.0101032257080078e-01</leafValues></_>
        <_>
          <internalNodes>
            0 -1 49 -253458295 -35 -1608209473 -1076053097 -10759201
            -1078231381 -21238865 -1184771</internalNodes>
          <leafValues>
            -5.7556051015853882e-01 4.9879091978073120e-01</leafValues></_>
        <_>
          <internalNodes>
            0 -1 9 -136711170 1473509367 -539099652 -178915874
            -1187267587 -1208698646 998191096 526341972</internalNodes>
          <leafValues>
            -6.9174987077713013e-01 3.7231439352035522e-01</leafValues></_>
        <_>
          <internalNodes>
            0 -1 14 -1340573136 2103234320 -553280675 -253987 193178554
            804761844 453445779 221533460</internalNodes>
          <leafValues>
            -8.1909984350204468e-01 3.2616710662841797e-01</leafValues></_></weakClassifiers></_>
    <!-- stage 7 -->
    <_>
      <maxWeakCount>7</maxWeakCount>
      <stageThreshold>-2.2359290122985840e+00</stageThreshold>
      <weakClassifiers>
        <_>
          <internalNodes>
            0 -1 52 -4113 -67381281 -844502018 -35920417 -287309841
            -108068885 -104075282 -18</internalNodes>
          <leafValues>
            -7.5991225242614746e-01 7.0599466562271118e-01</leafValues></_>
        <_>
          <internalNodes>
            0 -1 24 -1593429 -2250401 -671875686 -2638370 -621814033
            -67374597 -806360065 -268439553</internalNodes>
          <leafValues>
            -6.5716856718063354e-01 5.2469348907470703e-01</leafValues></_>
        <_>
          <internalNodes>
            0 -1 4 -362025425 811976271 -268518657 -117445377 1934586749
            -1007197189 -544833 -8923345</internalNodes>
          <leafValues>
            -5.3667807579040527e-01 5.0385123491287231e-01</leafValues></_>
        <_>
          <internalNodes>
            0 -1 13 -1710690863 -649630447 -577441795 -548430819
            -1377584653 -1074036783 728751615 1063066844</internalNodes>
          <leafValues>
            -5.8414816856384277e-01 4.6702921390533447e-01</leafValues></_>
        <_>
          <internalNodes>
            0 -1 0 -1069138 -44830409 -784084661 -1856646825 -1948284273
            -1161058129 1104919089 2147450813</internalNodes>
          <leafValues>
            -6.0515499114990234e-01 4.3683525919914246e-01</leafValues></_>
        <_>
          <internalNodes>
            0 -1 59 -1221004299 1970583513 -6948867 1876677081
            -1154680899 -214021 -1108591940 -1649140420</internalNodes>
          <leafValues>
            -6.9342374801635742e-01 3.2565972208976746e-01</leafValues></_>
        <_>
          <internalNodes>
            0 -1 47 -508567550 -474708136 867373066 -1488129051
            1919627719 1396914185 466615279 -142606386</internalNodes>
          <leafValues>
            -4.8196280002593994e-01 5.0354522466659546e-01</leafValues></_></weakClassifiers></_>
    <!-- stage 8 -->
    <_>
      <maxWeakCount>6</maxWeakCount>
      <stageThreshold>-1.6150146722793579e+00</stageThreshold>
      <weakClassifiers>
        <_>
          <internalNodes>
            0 -1 39 -176689281 -606077457 -926557473 -544738353
            -355731969 -353901841 -825496865 -1023425681</internalNodes>
          <leafValues>
            -7.4725782871246338e-01 7.2694897651672363e-01</leafValues></_>
        <_>
          <internalNodes>
            0 -1 50 -7208961 486602996 -1107689489 -33689091 -17441
            1071374831 -70259729 -1</internalNodes>
          <leafValues>
            -5.5347287654876709e-01 6.4657956361770630e-01</leafValues></_>
        <_>
          <internalNodes>
            0 -1 32 1054551615 -1073741857 1912045439 2111822811
            -1091585025 -108332903 -1179664387 -1327171</internalNodes>
          <leafValues>
            -6.5316331386566162e-01 4.0365454554557800e-01</leafValues></_>
        <_>
          <internalNodes>
            0 -1 56 -524493 503316287 -32769 -1 -524355 1073676287
            -4227169 -303235169</internalNodes>
          <leafValues>
            -4.4622415304183960e-01 5.5130219459533691e-01</leafValues></_>
        <_>
          <internalNodes>
            0 -1 18 -1953239111 -1179400867 752779069 -1479027204
            1025241087 -2114914 1862253051 503266909</internalNodes>
          <leafValues>
            -6.0804802179336548e-01 4.3171551823616028e-01</leafValues></_>
        <_>
          <internalNodes>
            0 -1 6 1761602943 -427947009 -287377445 1191103322
            1347706685 2132870459 2104391851 -411085073</internalNodes>
          <leafValues>
            -6.4413839578628540e-01 4.0170145034790039e-01</leafValues></_></weakClassifiers></_>
    <!-- stage 9 -->
    <_>
      <maxWeakCount>6</maxWeakCount>
      <stageThreshold>-1.5920679569244385e+00</stageThreshold>
      <weakClassifiers>
        <_>
          <internalNodes>
            0 -1 51 -117442305 -83886081 -52625411 -539099169 -371461125
            -540018293 -9443393 -132101</internalNodes>
          <leafValues>
            -7.5433117151260376e-01 7.0690321922302246e-01</leafValues></_>
        <_>
          <internalNodes>
            0 -1 21 -282701 -181769 -1076056073 -539024139 -874512641
            -641037895 -302297601 -537929281</internalNodes>
          <leafValues>
            -6.1269325017929077e-01 5.5013847351074219e-01</leafValues></_>
        <_>
          <internalNodes>
            0 -1 46 -201326966 -67125809 -616586560 -672153601
            -234907860 1952284525 -494933302 -134222849</internalNodes>
          <leafValues>
            -4.3730166554450989e-01 6.5371638536453247e-01</leafValues></_>
        <_>
          <internalNodes>
            0 -1 12 -233113896 -211954278 -1041114657 -1076496930
            -39177542 -1145373973 732650408 -1614148580</internalNodes>
          <leafValues>
            -5.8211845159530640e-01 4.2223668098449707e-01</leafValues></_>
        <_>
          <internalNodes>
            0 -1 30 1601489908 -10628099 -147588097 -2393639 -1415909378
            -268701699 996130815 1060640157</internalNodes>
          <leafValues>
            -6.9029760360717773e-01 3.2346054911613464e-01</leafValues></_>
        <_>
          <internalNodes>
            0 -1 57 -167775471 832558743 -539920069 -555746593 -67131351
            -1243963670 -118796612 -35668529</internalNodes>
          <leafValues>
            -5.0519162416458130e-01 4.7091609239578247e-01</leafValues></_></weakClassifiers></_>
    <!-- stage 10 -->
    <_>
      <maxWeakCount>7</maxWeakCount>
      <stageThreshold>-1.6600961685180664e+00</stageThreshold>
      <weakClassifiers>
        <_>
          <internalNodes>
            0 -1 40 -2097186 -9505 1899057342 -69217841 -105316614
            -70714401 -131077 -67109889</internalNodes>
          <leafValues>
            -7.6880091428756714e-01 6.6313481330871582e-01</leafValues></_>
        <_>
          <internalNodes>
            0 -1 26 -607409205 -40381209 -874647602 -281281581
            -1614812161 -74712322 -151258129 -25121</internalNodes>
          <leafValues>
            -6.4921993017196655e-01 4.7780928015708923e-01</leafValues></_>
        <_>
          <internalNodes>
            0 -1 36 -72 530369893 -2345572 -1143352579 -26350155
            1206470697 -67143949 -1116230</internalNodes>
          <leafValues>
            -6.0828876495361328e-01 4.0563130378723145e-01</leafValues></_>
        <_>
          <internalNodes>
            0 -1 53 1575888554 -572534315 -317472779 -39595347
            -1655963649 -335359941 -707004514 -266242</internalNodes>
          <leafValues>
            -7.4740314483642578e-01 3.0841183662414551e-01</leafValues></_>
        <_>
          <internalNodes>
            0 -1 61 1739809556 1474255775 -539763201 -2130851 -70009345
            -3944501 -2654209 540683568</internalNodes>
          <leafValues>
            -8.1584388017654419e-01 2.7384215593338013e-01</leafValues></_>
        <_>
          <internalNodes>
            0 -1 64 -1090519811 234414271 850359241 1741677707
            -1366705167 -1727492469 -1079443463 -131077</internalNodes>
          <leafValues>
            -4.7648146748542786e-01 4.8389443755149841e-01</leafValues></_>
        <_>
          <internalNodes>
            0 -1 23 -1505629522 -570963753 -237942021 -1177357859
            -1075328274 -1113031713 -1075851283 503056597</internalNodes>
          <leafValues>
            -6.9993507862091064e-01 3.1995370984077454e-01</leafValues></_></weakClassifiers></_>
    <!-- stage 11 -->
    <_>
      <maxWeakCount>6</maxWeakCount>
      <stageThreshold>-1.6490184068679810e+00</stageThreshold>
      <weakClassifiers>
        <_>
          <internalNodes>
            0 -1 55 -4206593 -1060915 -536899618 -48434 -1 -1 -4243461
            -1</internalNodes>
          <leafValues>
            -7.3296838998794556e-01 7.5082510709762573e-01</leafValues></_>
        <_>
          <internalNodes>
            0 -1 60 -8395 -100666417 -575668227 -513 -1181745219
            -1180961893 -1159733763 -1145307649</internalNodes>
          <leafValues>
            -5.7452780008316040e-01 5.7174593210220337e-01</leafValues></_>
        <_>
          <internalNodes>
            0 -1 15 -6610 -1171259441 -657281394 -1285377222 2139060087
            1947421547 -25167049 -151863745</internalNodes>
          <leafValues>
            -5.1482605934143066e-01 5.1147776842117310e-01</leafValues></_>
        <_>
          <internalNodes>
            0 -1 2 -1360596993 1053737475 -1050815273 -778833151
            1868495871 2141163776 -360186917 1568503799</internalNodes>
          <leafValues>
            -7.7719682455062866e-01 2.9955181479454041e-01</leafValues></_>
        <_>
          <internalNodes>
            0 -1 27 -746742872 -154522372 1073719979 -283666 1065188853
            911032318 -1090543873 -32773</internalNodes>
          <leafValues>
            -4.3051895499229431e-01 5.1821196079254150e-01</leafValues></_>
        <_>
          <internalNodes>
            0 -1 42 -296836566 -2101287433 1569241439 930226554
            1976135196 1847869582 -1161445380 1994910714</internalNodes>
          <leafValues>
            -6.4445996284484863e-01 3.2538071274757385e-01</leafValues></_></weakClassifiers></_></stages>
  <features>
    <_>
      <rect>
        0 0 12 4</rect></_>
    <_>
      <rect>
        0 1 12 2</rect></_>
    <_>
      <rect>
        0 2 5 3</rect></_>
    <_>
      <rect>
        0 4 5 2</rect></_>
    <_>
      <rect>
        0 5 2 1</rect></_>
    <_>
      <rect>
        0 7 3 2</rect></_>
    <_>
      <rect>
        0 8 3 1</rect></_>
    <_>
      <rect>
        0 8 4 1</rect></_>
    <_>
      <rect>
        0 9 6 1</rect></_>
    <_>
      <rect>
        0 9 12 1</rect></_>
    <_>
      <rect>
        1 0 3 1</rect></_>
    <_>
      <rect>
        1 10 10 1</rect></_>
    <_>
      <rect>
        2 1 5 1</rect></_>
    <_>
      <rect>
        2 2 10 1</rect></_>
    <_>
      <rect>
        3 1 11 1</rect></_>
    <_>
      <rect>
        3 6 1 1</rect></_>
    <_>
      <rect>
        4 0 8 2</rect></_>
    <_>
      <rect>
        4 6 8 2</rect></_>
    <_>
      <rect>
        4 7 9 1</rect></_>
    <_>
      <rect>
        5 0 9 1</rect></_>
    <_>
      <rect>
        5 9 7 1</rect></_>
    <_>
      <rect>
        6 7 5 1</rect></_>
    <_>
      <rect>
        7 1 4 4</rect></_>
    <_>
      <rect>
        7 3 5 1</rect></_>
    <_>
      <rect>
        7 4 4 2</rect></_>
    <_>
      <rect>
        8 0 3 3</rect></_>
    <_>
      <rect>
        8 4 3 1</rect></_>
    <_>
      <rect>
        8 6 1 1</rect></_>
    <_>
      <rect>
        8 7 4 1</rect></_>
    <_>
      <rect>
        8 8 5 1</rect></_>
    <_>
      <rect>
        8 10 5 1</rect></_>
    <_>
      <rect>
        8 10 9 1</rect></_>
    <_>
      <rect>
        10 3 8 2</rect></_>
    <_>
      <rect>
        10 4 2 3</rect></_>
    <_>
      <rect>
        10 5 2 1</rect></_>
    <_>
      <rect>
        11 2 2 2</rect></_>
    <_>
      <rect>
        11 6 2 2</rect></_>
    <_>
      <rect>
        11 8 6 1</rect></_>
    <_>
      <rect>
        12 7 6 1</rect></_>
    <_>
      <rect>
        14 1 1 2</rect></_>
    <_>
      <rect>
        14 3 6 1</rect></_>
    <_>
      <rect>
        14 4 7 2</rect></_>
    <_>
      <rect>
        14 6 1 1</rect></_>
    <_>
      <rect>
        17 1 4 4</rect></_>
    <_>
      <rect>
        17 2 4 1</rect></_>
    <_>
      <rect>
        17 4 1 1</rect></_>
    <_>
      <rect>
        17 5 1 1</rect></_>
    <_>
      <rect>
        18 5 1 1</rect></_>
    <_>
      <rect>
        18 5 3 1</rect></_>
    <_>
      <rect>
        18 6 3 1</rect></_>
    <_>
      <rect>
        18 7 2 1</rect></_>
    <_>
      <rect>
        18 7 3 1</rect></_>
    <_>
      <rect>
        19 2 3 2</rect></_>
    <_>
      <rect>
        19 4 3 2</rect></_>
    <_>
      <rect>
        20 0 5 3</rect></_>
    <_>
      <rect>
        21 4 1 1</rect></_>
    <_>
      <rect>
        24 2 4 2</rect></_>
    <_>
      <rect>
        24 6 4 1</rect></_>
    <_>
      <rect>
        24 8 4 1</rect></_>
    <_>
      <rect>
        25 10 3 1</rect></_>
    <_>
      <rect>
        26 8 3 1</rect></_>
    <_>
      <rect>
        27 0 3 2</rect></_>
    <_>
      <rect>
        27 3 3 2</rect></_>
    <_>
      <rect>
        27 7 3 1</rect></_>
    <_>
      <rect>
        27 7 3 2</rect></_>
    <_>
      <rect>
        30 3 2 2</rect></_>
    <_>
      <rect>
        31 5 1 1</rect></_></features></cascade>
</opencv_storage>
