<?xml version="1.0"?>
<opencv_storage>
<cascade>
  <stageType>BOOST</stageType>
  <featureType>LBP</featureType>
  <height>24</height>
  <width>24</width>
  <stageParams>
    <boostType>GAB</boostType>
    <minHitRate>9.9500000476837158e-01</minHitRate>
    <maxFalseAlarm>5.0000000000000000e-01</maxFalseAlarm>
    <weightTrimRate>9.4999999999999996e-01</weightTrimRate>
    <maxDepth>1</maxDepth>
    <maxWeakCount>100</maxWeakCount></stageParams>
  <featureParams>
    <maxCatCount>256</maxCatCount>
    <featSize>1</featSize></featureParams>
  <stageNum>6</stageNum>
  <stages>
    <!-- stage 0 -->
    <_>
      <maxWeakCount>1</maxWeakCount>
      <stageThreshold>1.</stageThreshold>
      <weakClassifiers>
        <_>
          <internalNodes>
            0 -1 2 -782904833 1964736649 285300739 -244887477 1082376363
            -930611191 -1995972209 -262193</internalNodes>
          <leafValues>
            -1. 1.</leafValues></_></weakClassifiers></_>
    <!-- stage 1 -->
    <_>
      <maxWeakCount>1</maxWeakCount>
      <stageThreshold>1.</stageThreshold>
      <weakClassifiers>
        <_>
          <internalNodes>
            0 -1 0 -540090625 -3582669 -461334051 -40600641 -811533889
            -75329383 -2004698437 -72632129</internalNodes>
          <leafValues>
            -1. 1.</leafValues></_></weakClassifiers></_>
    <!-- stage 2 -->
    <_>
      <maxWeakCount>1</maxWeakCount>
      <stageThreshold>9.9875080585479736e-01</stageThreshold>
      <weakClassifiers>
        <_>
          <internalNodes>
            0 -1 3 -211815425 -177480753 25375489 -587087869 -787234645
            -259268088 -1709657125 -9521</internalNodes>
          <leafValues>
            -1. 9.9875080585479736e-01</leafValues></_></weakClassifiers></_>
    <!-- stage 3 -->
    <_>
      <maxWeakCount>1</maxWeakCount>
      <stageThreshold>9.9875080585479736e-01</stageThreshold>
      <weakClassifiers>
        <_>
          <internalNodes>
            0 -1 1 -53005321 -573201995 -343582977 -39877433 -207618305
            -69490163 -1178484481 -70527799</internalNodes>
          <leafValues>
            -1. 9.9875080585479736e-01</leafValues></_></weakClassifiers></_>
    <!-- stage 4 -->
    <_>
      <maxWeakCount>1</maxWeakCount>
      <stageThreshold>1.</stageThreshold>
      <weakClassifiers>
        <_>
          <internalNodes>
            0 -1 5 -201853953 -109584373 -1023229041 -47986353
            -1073220645 -385654272 -886862117 -3345</internalNodes>
          <leafValues>
            -1. 1.</leafValues></_></weakClassifiers></_>
    <!-- stage 5 -->
    <_>
      <maxWeakCount>1</maxWeakCount>
      <stageThreshold>1.</stageThreshold>
      <weakClassifiers>
        <_>
          <internalNodes>
            0 -1 4 -182994049 -711605269 -1718585969 -49300325 -79581513
            -829948797 -909842721 -8671025</internalNodes>
          <leafValues>
            -9.9600797891616821e-01 1.</leafValues></_></weakClassifiers></_></stages>
  <features>
    <_>
      <rect>
        1 11 6 4</rect></_>
    <_>
      <rect>
        2 12 7 3</rect></_>
    <_>
      <rect>
        3 12 4 4</rect></_>
    <_>
      <rect>
        5 2 2 4</rect></_>
    <_>
      <rect>
        12 7 3 4</rect></_>
    <_>
      <rect>
        17 13 2 3</rect></_></features></cascade>
</opencv_storage>
