<?xml version="1.0"?>
<opencv_storage>
<stage14>
  <maxWeakCount>5</maxWeakCount>
  <stageThreshold>-3.0177623033523560e-01</stageThreshold>
  <weakClassifiers>
    <_>
      <internalNodes>
        0 -1 852 1659301102 -151072769 2147414015 -8454164 1970569215
        1979023231 2002681343 1584881655</internalNodes>
      <leafValues>
        -4.7161573171615601e-01 8.9283365011215210e-01</leafValues></_>
    <_>
      <internalNodes>
        0 -1 4507 -9466230 -555749681 1273909183 -671265170 -57413
        -675287105 -1086603402 -4718594</internalNodes>
      <leafValues>
        -4.9096730351448059e-01 8.3278274536132812e-01</leafValues></_>
    <_>
      <internalNodes>
        0 -1 4274 -121023489 -1663303213 -1610591853 -654311387
        -1828028398 -805126144 -1591152637 -1734332403</internalNodes>
      <leafValues>
        -6.3165366649627686e-01 7.0948737859725952e-01</leafValues></_>
    <_>
      <internalNodes>
        0 -1 99 -1157605587 -651964413 -1073217325 -682508029 1619157150
        -125826931 1684077131 -1008578267</internalNodes>
      <leafValues>
        -6.1507046222686768e-01 6.4208352565765381e-01</leafValues></_>
    <_>
      <internalNodes>
        0 -1 2212 -1290250249 1023426577 -804781347 1459683861 151562447
        -1437990784 721588371 2072260809</internalNodes>
      <leafValues>
        -6.2321978807449341e-01 5.8378088474273682e-01</leafValues></_></weakClassifiers></stage14>
</opencv_storage>
