<?xml version="1.0"?>
<opencv_storage>
<stage15>
  <maxWeakCount>5</maxWeakCount>
  <stageThreshold>-2.6556169986724854e-01</stageThreshold>
  <weakClassifiers>
    <_>
      <internalNodes>
        0 -1 4983 -470057200 905969661 -131075 -1342308353 -1107296259
        -1191182337 -35807747 1025236351</internalNodes>
      <leafValues>
        -3.7291279435157776e-01 9.1219180822372437e-01</leafValues></_>
    <_>
      <internalNodes>
        0 -1 2379 -6049885 -1075335185 -1073795076 -537415683
        -1073741825 -1 -1073799169 1610567677</internalNodes>
      <leafValues>
        -6.0132873058319092e-01 7.8851741552352905e-01</leafValues></_>
    <_>
      <internalNodes>
        0 -1 4478 -240328622 -539033858 -1930474402 910330886 1073723311
        -34833 -276955222 -3703001</internalNodes>
      <leafValues>
        -5.4444038867950439e-01 7.8435885906219482e-01</leafValues></_>
    <_>
      <internalNodes>
        0 -1 32 285307285 -246104064 -805301801 -1185999843 -1333099879
        -1971257299 -1710616349 -1448607404</internalNodes>
      <leafValues>
        -6.2223345041275024e-01 6.0937166213989258e-01</leafValues></_>
    <_>
      <internalNodes>
        0 -1 1271 138511603 -653164536 385892629 1360868131 -1073144599
        -1426063359 -1606374258 469451253</internalNodes>
      <leafValues>
        -6.2673217058181763e-01 5.9024906158447266e-01</leafValues></_></weakClassifiers></stage15>
</opencv_storage>
