<?xml version="1.0"?>
<opencv_storage>
<stage8>
  <maxWeakCount>4</maxWeakCount>
  <stageThreshold>2.3179963231086731e-01</stageThreshold>
  <weakClassifiers>
    <_>
      <internalNodes>
        0 -1 2879 2004221887 -1 -1 -1 2147450879 2097151999 -16385
        1962278911</internalNodes>
      <leafValues>
        -4.9146109819412231e-01 9.2801880836486816e-01</leafValues></_>
    <_>
      <internalNodes>
        0 -1 4963 1471099056 502611967 2147385343 2147352575 -537722952
        -1073807425 -1074397185 -65</internalNodes>
      <leafValues>
        -5.7009083032608032e-01 8.5188966989517212e-01</leafValues></_>
    <_>
      <internalNodes>
        0 -1 2850 -184312865 -754941691 21024789 -1690237895 -2080239110
        -1462861683 -1736332550 422137232</internalNodes>
      <leafValues>
        -6.7944628000259399e-01 7.0444828271865845e-01</leafValues></_>
    <_>
      <internalNodes>
        0 -1 36 287504784 1368653840 -787398371 -721351851 135268602
        -1702723455 16826827 396691585</internalNodes>
      <leafValues>
        -7.6672202348709106e-01 5.8890324831008911e-01</leafValues></_></weakClassifiers></stage8>
</opencv_storage>
