<?xml version="1.0"?>
<opencv_storage>
<stage10>
  <maxWeakCount>5</maxWeakCount>
  <stageThreshold>-1.8539379537105560e-01</stageThreshold>
  <weakClassifiers>
    <_>
      <internalNodes>
        0 -1 257 -26050629 1424932863 -268500993 -1158004802 844398550
        -688137 -1461911585 -131073</internalNodes>
      <leafValues>
        -4.0808823704719543e-01 9.2083895206451416e-01</leafValues></_>
    <_>
      <internalNodes>
        0 -1 5188 -1879050473 872283135 -2097283 -393219 -671819
        1073610751 -32834 2116026239</internalNodes>
      <leafValues>
        -5.7544535398483276e-01 8.2843756675720215e-01</leafValues></_>
    <_>
      <internalNodes>
        0 -1 2622 -616541219 1602551825 33685517 999112709 973080705
        -1945174005 -490616279 -1087757659</internalNodes>
      <leafValues>
        -6.8559771776199341e-01 6.9642758369445801e-01</leafValues></_>
    <_>
      <internalNodes>
        0 -1 2790 -162552118 -1056845757 -1870311159 -939436605
        -1811873432 -1744486400 704705243 -273949777</internalNodes>
      <leafValues>
        -6.6340708732604980e-01 7.0626980066299438e-01</leafValues></_>
    <_>
      <internalNodes>
        0 -1 1860 -601128402 -612495506 -1951430136 146735102
        -1317050429 1660418047 1039117226 -811104846</internalNodes>
      <leafValues>
        -5.0939071178436279e-01 7.6511931419372559e-01</leafValues></_></weakClassifiers></stage10>
</opencv_storage>
