<?xml version="1.0"?>
<opencv_storage>
<stage18>
  <maxWeakCount>5</maxWeakCount>
  <stageThreshold>-4.1171368956565857e-01</stageThreshold>
  <weakClassifiers>
    <_>
      <internalNodes>
        0 -1 2720 -427839988 -1 -115 -1 2139074543 -8392705 -545276275
        -21361</internalNodes>
      <leafValues>
        -4.2619541287422180e-01 8.9242893457412720e-01</leafValues></_>
    <_>
      <internalNodes>
        0 -1 882 -712779437 -2063261356 285247705 2081493044 405336764
        -1161289564 444766417 2132367825</internalNodes>
      <leafValues>
        -6.4587140083312988e-01 7.5390297174453735e-01</leafValues></_>
    <_>
      <internalNodes>
        0 -1 4932 -197671807 -151013505 1929366219 -222299153 1869604623
        930487295 393691778 -160975353</internalNodes>
      <leafValues>
        -5.2320075035095215e-01 8.0901420116424561e-01</leafValues></_>
    <_>
      <internalNodes>
        0 -1 505 1787552055 1964310608 -1056944047 -510787583 67744661
        1879064836 -226299389 2139341191</internalNodes>
      <leafValues>
        -6.0232377052307129e-01 6.1947888135910034e-01</leafValues></_>
    <_>
      <internalNodes>
        0 -1 3241 2143638525 -2025713663 -2147483383 -1040185343 544829
        -1530912220 -2008928023 -1160025175</internalNodes>
      <leafValues>
        -7.5454926490783691e-01 4.9769857525825500e-01</leafValues></_></weakClassifiers></stage18>
</opencv_storage>
