<?xml version="1.0"?>
<opencv_storage>
<stage11>
  <maxWeakCount>5</maxWeakCount>
  <stageThreshold>-2.7216386795043945e-01</stageThreshold>
  <weakClassifiers>
    <_>
      <internalNodes>
        0 -1 4036 -806384753 -16385 266276815 1073741823 -1073758225
        -1073758209 -20498 -1070194</internalNodes>
      <leafValues>
        -3.0605563521385193e-01 9.3007963895797729e-01</leafValues></_>
    <_>
      <internalNodes>
        0 -1 206 -529535185 7339823 -16641 -1056964881 2004875133
        -982024321 -134762689 -176826553</internalNodes>
      <leafValues>
        -5.5266422033309937e-01 8.0815887451171875e-01</leafValues></_>
    <_>
      <internalNodes>
        0 -1 4306 -1189900139 -242789800 16859359 -1717890612 873169066
        -125304671 -536670817 -2008809460</internalNodes>
      <leafValues>
        -6.2627786397933960e-01 7.4528557062149048e-01</leafValues></_>
    <_>
      <internalNodes>
        0 -1 5374 1667999495 278020291 -1325393892 1372242079 -530325211
        268468480 -762019199 -943996677</internalNodes>
      <leafValues>
        -6.3349872827529907e-01 6.5883111953735352e-01</leafValues></_>
    <_>
      <internalNodes>
        0 -1 2396 -1322133039 1495613473 134301737 -57293823 -1970791765
        -1995374582 34515595 690323465</internalNodes>
      <leafValues>
        -7.3829501867294312e-01 5.5400270223617554e-01</leafValues></_></weakClassifiers></stage11>
</opencv_storage>
