<?xml version="1.0"?>
<opencv_storage>
<stage9>
  <maxWeakCount>6</maxWeakCount>
  <stageThreshold>-1.5920679569244385e+00</stageThreshold>
  <weakClassifiers>
    <_>
      <internalNodes>
        0 -1 4264 -117442305 -83886081 -52625411 -539099169 -371461125
        -540018293 -9443393 -132101</internalNodes>
      <leafValues>
        -7.5433117151260376e-01 7.0690321922302246e-01</leafValues></_>
    <_>
      <internalNodes>
        0 -1 1908 -282701 -181769 -1076056073 -539024139 -874512641
        -641037895 -302297601 -537929281</internalNodes>
      <leafValues>
        -6.1269325017929077e-01 5.5013847351074219e-01</leafValues></_>
    <_>
      <internalNodes>
        0 -1 4080 -201326966 -67125809 -616586560 -672153601 -234907860
        1952284525 -494933302 -134222849</internalNodes>
      <leafValues>
        -4.3730166554450989e-01 6.5371638536453247e-01</leafValues></_>
    <_>
      <internalNodes>
        0 -1 658 -233113896 -211954278 -1041114657 -1076496930 -39177542
        -1145373973 732650408 -1614148580</internalNodes>
      <leafValues>
        -5.8211845159530640e-01 4.2223668098449707e-01</leafValues></_>
    <_>
      <internalNodes>
        0 -1 2413 1601489908 -10628099 -147588097 -2393639 -1415909378
        -268701699 996130815 1060640157</internalNodes>
      <leafValues>
        -6.9029760360717773e-01 3.2346054911613464e-01</leafValues></_>
    <_>
      <internalNodes>
        0 -1 4970 -167775471 832558743 -539920069 -555746593 -67131351
        -1243963670 -118796612 -35668529</internalNodes>
      <leafValues>
        -5.0519162416458130e-01 4.7091609239578247e-01</leafValues></_></weakClassifiers></stage9>
</opencv_storage>
