<?xml version="1.0"?>
<opencv_storage>
<stage11>
  <maxWeakCount>6</maxWeakCount>
  <stageThreshold>-1.6490184068679810e+00</stageThreshold>
  <weakClassifiers>
    <_>
      <internalNodes>
        0 -1 4620 -4206593 -1060915 -536899618 -48434 -1 -1 -4243461 -1</internalNodes>
      <leafValues>
        -7.3296838998794556e-01 7.5082510709762573e-01</leafValues></_>
    <_>
      <internalNodes>
        0 -1 5141 -8395 -100666417 -575668227 -513 -1181745219
        -1180961893 -1159733763 -1145307649</internalNodes>
      <leafValues>
        -5.7452780008316040e-01 5.7174593210220337e-01</leafValues></_>
    <_>
      <internalNodes>
        0 -1 1093 -6610 -1171259441 -657281394 -1285377222 2139060087
        1947421547 -25167049 -151863745</internalNodes>
      <leafValues>
        -5.1482605934143066e-01 5.1147776842117310e-01</leafValues></_>
    <_>
      <internalNodes>
        0 -1 110 -1360596993 1053737475 -1050815273 -778833151
        1868495871 2141163776 -360186917 1568503799</internalNodes>
      <leafValues>
        -7.7719682455062866e-01 2.9955181479454041e-01</leafValues></_>
    <_>
      <internalNodes>
        0 -1 2355 -746742872 -154522372 1073719979 -283666 1065188853
        911032318 -1090543873 -32773</internalNodes>
      <leafValues>
        -4.3051895499229431e-01 5.1821196079254150e-01</leafValues></_>
    <_>
      <internalNodes>
        0 -1 3591 -296836566 -2101287433 1569241439 930226554 1976135196
        1847869582 -1161445380 1994910714</internalNodes>
      <leafValues>
        -6.4445996284484863e-01 3.2538071274757385e-01</leafValues></_></weakClassifiers></stage11>
</opencv_storage>
