<?xml version="1.0"?>
<opencv_storage>
<stage8>
  <maxWeakCount>5</maxWeakCount>
  <stageThreshold>-4.5954877138137817e-01</stageThreshold>
  <weakClassifiers>
    <_>
      <internalNodes>
        0 -1 6999 -79712401 -4097 557657471 -538152993 -32781
        -1073774593 1897135999 -151555</internalNodes>
      <leafValues>
        -4.6089848875999451e-01 8.2546496391296387e-01</leafValues></_>
    <_>
      <internalNodes>
        0 -1 2597 -1146040335 -67847177 -143363 -655884 -1611268099 -1
        -537002625 -1350812161</internalNodes>
      <leafValues>
        -5.3338491916656494e-01 7.0282173156738281e-01</leafValues></_>
    <_>
      <internalNodes>
        0 -1 1637 850950029 -131329 -33281 -167862787 -1308787012
        -1107296257 -1350819937 -1906684380</internalNodes>
      <leafValues>
        -5.5444753170013428e-01 6.4232593774795532e-01</leafValues></_>
    <_>
      <internalNodes>
        0 -1 8156 -813696731 298041411 335759871 1494417551 -1265465243
        27918528 -2113869012 462156587</internalNodes>
      <leafValues>
        -5.8032953739166260e-01 6.1365938186645508e-01</leafValues></_>
    <_>
      <internalNodes>
        0 -1 2858 -1511084631 -1052717036 553836755 1161920848
        -1073700708 -721403776 -536833905 -519068827</internalNodes>
      <leafValues>
        -7.2125065326690674e-01 5.1066273450851440e-01</leafValues></_></weakClassifiers></stage8>
</opencv_storage>
