<?xml version="1.0"?>
<opencv_storage>
<stage6>
  <maxWeakCount>4</maxWeakCount>
  <stageThreshold>-8.7157672643661499e-01</stageThreshold>
  <weakClassifiers>
    <_>
      <internalNodes>
        0 -1 2790 -927488502 -1061163009 -1895920118 1224703997
        -1073791156 1597996927 -805306417 -268456449</internalNodes>
      <leafValues>
        -5.5925154685974121e-01 9.1719114780426025e-01</leafValues></_>
    <_>
      <internalNodes>
        0 -1 5399 -353385205 -1565280907 -86134 -1816154321 1207780717
        100614143 -402653713 -473960541</internalNodes>
      <leafValues>
        -4.5219215750694275e-01 9.2134356498718262e-01</leafValues></_>
    <_>
      <internalNodes>
        0 -1 1948 1963163065 -779911119 -1073729187 -721354739 304267930
        -1568309056 37784009 459296772</internalNodes>
      <leafValues>
        -7.5962829589843750e-01 7.2194164991378784e-01</leafValues></_>
    <_>
      <internalNodes>
        0 -1 2767 -218250326 -1157660689 -1895870962 -536870913
        -1082654771 2013265279 267894543 -134232721</internalNodes>
      <leafValues>
        -5.8207464218139648e-01 7.8204411268234253e-01</leafValues></_></weakClassifiers></stage6>
</opencv_storage>
