<?xml version="1.0"?>
<opencv_storage>
<stage17>
  <maxWeakCount>4</maxWeakCount>
  <stageThreshold>-7.8173667192459106e-01</stageThreshold>
  <weakClassifiers>
    <_>
      <internalNodes>
        0 -1 1926 -1415332877 -68108813 -2569 -1250560011 -1074266114
        -1073742347 -1073741825 1073305077</internalNodes>
      <leafValues>
        -4.2158859968185425e-01 8.9618426561355591e-01</leafValues></_>
    <_>
      <internalNodes>
        0 -1 4062 1900015626 2141175567 -1951420726 -8321 2004858702
        1130174286 -142668310 -134238289</internalNodes>
      <leafValues>
        -5.3151005506515503e-01 8.3695381879806519e-01</leafValues></_>
    <_>
      <internalNodes>
        0 -1 4566 -180377639 -67239943 -1073741857 -393275 -25448454
        -1073741831 2147282620 -281383651</internalNodes>
      <leafValues>
        -4.6827834844589233e-01 8.1754010915756226e-01</leafValues></_>
    <_>
      <internalNodes>
        0 -1 5209 -1044407761 21661697 1233322011 1359581379 -2138406655
        294289539 -2138914807 2139850926</internalNodes>
      <leafValues>
        -6.7813247442245483e-01 5.8005994558334351e-01</leafValues></_></weakClassifiers></stage17>
</opencv_storage>
