<?xml version="1.0"?>
<opencv_storage>
<stage12>
  <maxWeakCount>7</maxWeakCount>
  <stageThreshold>-1.6213984489440918e+00</stageThreshold>
  <weakClassifiers>
    <_>
      <internalNodes>
        0 -1 4027 -169870706 -540571698 -104730145 -12189994 1464859647
        2090576314 1767630847 -2101265</internalNodes>
      <leafValues>
        -7.8158873319625854e-01 6.4952111244201660e-01</leafValues></_>
    <_>
      <internalNodes>
        0 -1 2626 -8388847 -1086352586 -34087051 2147474293 942397659
        1006617595 -93597953 -1106436</internalNodes>
      <leafValues>
        -6.5142160654067993e-01 5.2254265546798706e-01</leafValues></_>
    <_>
      <internalNodes>
        0 -1 2842 -772730369 -1143918601 -604110881 -168434691
        -1078068225 -1079269221 -101717249 -172882435</internalNodes>
      <leafValues>
        -5.5808639526367188e-01 4.5907020568847656e-01</leafValues></_>
    <_>
      <internalNodes>
        0 -1 231 2127497743 352153555 -959714194 1017072026 1511470951
        -918325819 -414337143 230644991</internalNodes>
      <leafValues>
        -6.2958616018295288e-01 4.0531030297279358e-01</leafValues></_>
    <_>
      <internalNodes>
        0 -1 1702 -615178688 -36417058 -150349825 2136733918 -2099372097
        -86396551 -48267787 -1621227195</internalNodes>
      <leafValues>
        -6.0042530298233032e-01 3.6999833583831787e-01</leafValues></_>
    <_>
      <internalNodes>
        0 -1 2806 -493506944 -1534667274 -318902559 -173015041
        -638473637 1694185627 -263556 1744829437</internalNodes>
      <leafValues>
        -7.0078343152999878e-01 2.7325072884559631e-01</leafValues></_>
    <_>
      <internalNodes>
        0 -1 3882 -70321832 -1612997377 1765841017 -170001801
        -1144277844 -1097155138 -1561658450 229115017</internalNodes>
      <leafValues>
        -5.7418966293334961e-01 3.5603535175323486e-01</leafValues></_></weakClassifiers></stage12>
</opencv_storage>
