<?xml version="1.0"?>
<opencv_storage>
<stage1>
  <maxWeakCount>5</maxWeakCount>
  <stageThreshold>-1.2754549980163574e+00</stageThreshold>
  <weakClassifiers>
    <_>
      <internalNodes>
        0 -1 1375 -208602627 -2263041 -3408899 -2100259 -1145307137
        -2123585 -68027393 -1</internalNodes>
      <leafValues>
        -8.0720609426498413e-01 7.8892213106155396e-01</leafValues></_>
    <_>
      <internalNodes>
        0 -1 1199 -1715094531 -436227 -1084490753 -2630179 -1354895361
        -2254599 -1352668161 266145053</internalNodes>
      <leafValues>
        -8.2734298706054688e-01 5.1725918054580688e-01</leafValues></_>
    <_>
      <internalNodes>
        0 -1 4017 -6440258 -2115585 939243519 -1073769505 -17826305
        -71580189 -67125249 -17410</internalNodes>
      <leafValues>
        -7.1358674764633179e-01 5.5877000093460083e-01</leafValues></_>
    <_>
      <internalNodes>
        0 -1 2417 488259576 -1077159436 -3024387 -2788080 767204314
        -1078350968 -1155753736 504957428</internalNodes>
      <leafValues>
        -7.9874128103256226e-01 4.5004865527153015e-01</leafValues></_>
    <_>
      <internalNodes>
        0 -1 5188 -941101257 836624863 -250216451 -537144353 1472331711
        931728587 -87068993 2139094655</internalNodes>
      <leafValues>
        -5.8719027042388916e-01 6.2263220548629761e-01</leafValues></_></weakClassifiers></stage1>
</opencv_storage>
